<?xml version="1.0"?>
<opencv_storage>
<stage4>
  <maxWeakCount>5</maxWeakCount>
  <stageThreshold>-7.9195535182952881e-01</stageThreshold>
  <weakClassifiers>
    <_>
      <internalNodes>
        0 -1 53975 3.2571054995059967e-02</internalNodes>
      <leafValues>
        -4.0795558691024780e-01 8.2828909158706665e-01</leafValues></_>
    <_>
      <internalNodes>
        0 -1 42072 -1.1627639643847942e-02</internalNodes>
      <leafValues>
        5.5964821577072144e-01 -8.5584670305252075e-01</leafValues></_>
    <_>
      <internalNodes>
        0 -1 17296 5.7318666949868202e-03</internalNodes>
      <leafValues>
        -6.0165470838546753e-01 5.5189818143844604e-01</leafValues></_>
    <_>
      <internalNodes>
        0 -1 58307 -2.1719001233577728e-02</internalNodes>
      <leafValues>
        6.9680863618850708e-01 -5.0495368242263794e-01</leafValues></_>
    <_>
      <internalNodes>
        0 -1 70451 1.3944925740361214e-03</internalNodes>
      <leafValues>
        -7.8710514307022095e-01 3.4221068024635315e-01</leafValues></_></weakClassifiers></stage4>
</opencv_storage>
